digraph Tree {
node [shape=box, style="filled", color="black"] ;
graph [ranksep=equally, splines=polyline] ;
0 [label="node #0\nvariance_wt <= 0.32\ngini = 0.494\nsamples = 960\nvalue = [0.555, 0.445]", fillcolor="#fae6d8"] ;
1 [label="node #1\ngini = 0.301\nsamples = 465\nvalue = [0.09, 0.395]", fillcolor="#66b3eb"] ;
0 -> 1 [labeldistance=2.5, labelangle=45, headlabel="True"] ;
2 [label="node #2\ngini = 0.175\nsamples = 495\nvalue = [0.466, 0.05]", fillcolor="#e88f4e"] ;
0 -> 2 [labeldistance=2.5, labelangle=-45, headlabel="False"] ;
{rank=same ; 0} ;
{rank=same ; 1; 2} ;
}